<?xml version="1.0"?>
<opencv_storage>
<stage0>
  <maxWeakCount>11</maxWeakCount>
  <stageThreshold>-1.8564834594726562e+00</stageThreshold>
  <weakClassifiers>
    <_>
      <internalNodes>
        0 -1 20203 -8.6818166077136993e-02</internalNodes>
      <leafValues>
        9.6030727028846741e-02 -7.7002054452896118e-01</leafValues></_>
    <_>
      <internalNodes>
        0 -1 12294 -1.4349403791129589e-03</internalNodes>
      <leafValues>
        2.0759175717830658e-01 -6.8284946680068970e-01</leafValues></_>
    <_>
      <internalNodes>
        0 -1 159534 2.5853263214230537e-03</internalNodes>
      <leafValues>
        -4.7959992289543152e-01 3.2403066754341125e-01</leafValues></_>
    <_>
      <internalNodes>
        0 -1 52604 -1.4234370552003384e-02</internalNodes>
      <leafValues>
        5.7985991239547729e-01 -2.7230459451675415e-01</leafValues></_>
    <_>
      <internalNodes>
        0 -1 26671 -1.4185912907123566e-02</internalNodes>
      <leafValues>
        5.6992816925048828e-01 -2.5296822190284729e-01</leafValues></_>
    <_>
      <internalNodes>
        0 -1 18755 7.9924110323190689e-03</internalNodes>
      <leafValues>
        -2.1018522977828979e-01 5.9851247072219849e-01</leafValues></_>
    <_>
      <internalNodes>
        0 -1 59171 1.4618068933486938e-01</internalNodes>
      <leafValues>
        -1.0187032818794250e-01 8.3727729320526123e-01</leafValues></_>
    <_>
      <internalNodes>
        0 -1 98975 -2.9435451142489910e-03</internalNodes>
      <leafValues>
        5.5956745147705078e-01 -1.7085954546928406e-01</leafValues></_>
    <_>
      <internalNodes>
        0 -1 8734 -6.7036285996437073e-02</internalNodes>
      <leafValues>
        2.9890823364257812e-01 -3.5727193951606750e-01</leafValues></_>
    <_>
      <internalNodes>
        0 -1 160580 -5.0418460741639137e-03</internalNodes>
      <leafValues>
        5.3766483068466187e-01 -1.9561424851417542e-01</leafValues></_>
    <_>
      <internalNodes>
        0 -1 25729 -5.9535249602049589e-04</internalNodes>
      <leafValues>
        -5.6824570894241333e-01 1.7724977433681488e-01</leafValues></_></weakClassifiers></stage0>
</opencv_storage>
